digraph Tree {
node [shape=box] ;
0 [label="X[10] <= 0.5\nentropy = 0.998\nsamples = 17\nvalue = [[8, 9]\n[9, 8]]"] ;
1 [label="X[0] <= 0.5\nentropy = 0.544\nsamples = 8\nvalue = [[1, 7]\n[7, 1]]"] ;
0 -> 1 [labeldistance=2.5, labelangle=45, headlabel="True"] ;
2 [label="entropy = 0.0\nsamples = 6\nvalue = [[0, 6]\n[6, 0]]"] ;
1 -> 2 ;
3 [label="X[16] <= 0.5\nentropy = 1.0\nsamples = 2\nvalue = [[1, 1]\n[1, 1]]"] ;
1 -> 3 ;
4 [label="entropy = 0.0\nsamples = 1\nvalue = [[0, 1]\n[1, 0]]"] ;
3 -> 4 ;
5 [label="entropy = 0.0\nsamples = 1\nvalue = [[1, 0]\n[0, 1]]"] ;
3 -> 5 ;
6 [label="X[16] <= 0.5\nentropy = 0.764\nsamples = 9\nvalue = [[7, 2]\n[2, 7]]"] ;
0 -> 6 [labeldistance=2.5, labelangle=-45, headlabel="False"] ;
7 [label="entropy = 0.0\nsamples = 6\nvalue = [[6, 0]\n[0, 6]]"] ;
6 -> 7 ;
8 [label="X[14] <= 0.5\nentropy = 0.918\nsamples = 3\nvalue = [[1, 2]\n[2, 1]]"] ;
6 -> 8 ;
9 [label="entropy = 0.0\nsamples = 1\nvalue = [[0, 1]\n[1, 0]]"] ;
8 -> 9 ;
10 [label="X[2] <= 0.5\nentropy = 1.0\nsamples = 2\nvalue = [[1, 1]\n[1, 1]]"] ;
8 -> 10 ;
11 [label="entropy = 0.0\nsamples = 1\nvalue = [[0, 1]\n[1, 0]]"] ;
10 -> 11 ;
12 [label="entropy = 0.0\nsamples = 1\nvalue = [[1, 0]\n[0, 1]]"] ;
10 -> 12 ;
}